0.34216,-1.6061,-0.26585,0.57129,-0.88184,-0.3875,0.35702,-1.0161,-1.0017,0.26041,-0.72801,-0.70674,0.033484,-1.6361,-1.3233,-1.4678,-0.60149,-0.3214,0.42046,-0.65278,0.16005,-0.6277,-1.201,0.60831,-1.4431,-0.94613,-1.0263,-0.77303,-0.28855,-0.95822,-0.84185,-0.41723,-1.0958,-0.55972,-1.4226,0.092498,-0.51048,-0.29353,-0.52974,0.43772,-0.40678,0.0018227,-0.30934,-0.21485,-0.28858,-1.1781,-1.1762,-0.76186,0.47385,-0.54319,-0.83523,-1.792,-0.25139,-1.0547,-1.0881,-0.91747,-0.27938,-0.34303,-0.71318,-0.36641,0.43283,-0.6596,0.74667,-0.73368,-1.3311,0.20952,-0.094579,-0.55123,-0.56105,-0.031698,-1.0339,-0.052512,-1.5915,-1.2507,-1.3677,-1.4329,0.34093,-0.8318,0.18979,-0.8918,-1.0507,-0.71949,-0.52248,-0.38174,-0.083863,-0.41104,-1.28,-1.0263,-0.093742,-1.1529,-0.95123,-0.4782,-1.7518,-1.1743,0.55418,-0.56539,0.077553,-1.1515,-1.0807,-1.8888,-0.34962,-0.61888,0.18189,0.95355,-0.88737,-0.34325,-1.2021,-0.9167,-0.97697,-0.61008,-0.348,0.29697,0.044642,0.32294,-0.49662,0.028255,-0.51101,-0.75086,-0.43794,-1.0052,0.48857,-1.0959,0.28836,-1.2165,-0.62297,-0.35598,-0.71112,-0.14622,-0.57796,-0.29472,-0.76897,-0.48284,-1.5207,-0.14775,-0.030145,-0.15651,-0.99315,-0.54838,0.46052,-0.92643,-1.0638,0.00010208,-1.216,-0.30291,-0.72183,0.16897,-0.11325,-0.34454,-1.538,0.52077,0.13141,-1.8167,-0.91003,-0.62531,-0.19327,0.11639,-1.7033,-0.24995,-1.67,-0.90361,-0.32797,0.39246,-1.0638,-1.0233,-0.23758,-0.63783,0.76165,0.050446,-0.51122,-0.60412,-0.4571,-0.93146,-0.044956,-0.17414,-0.72165,0.080371,-5.1831e-05,-0.4051,-1.3402,-1.0463,-0.72335,-1.0471,0.2476,-1.355,-0.77949,-0.77149,0.084677,-0.84342,-0.043763,-0.97069,-0.80996,-1.6224,-0.74863,-0.66177,0.23635,-0.93256,-1.7168,-0.95851,-0.80725,-1.8043,0.73518,-0.55743,-0.59769,-0.064889,-1.2231,-0.65088,-1.4308,0.74624,0.043703,-0.881,-1.6173,-0.60978,-0.94886,-0.50735,-0.08603,-0.095474,-1.3289,-0.20972,0.38669,-1.1968,-0.47747,0.0072688,-0.072484,-0.99435,0.0046256,-0.96032,-1.2159,-0.96922,-0.91426,-1.2004,-0.53693,-0.34507,0.4,-0.92495,-0.7784,-1.5148,-0.064092,-0.65823,-1.5004,-1.1058,-0.014528,-0.80912,-0.79912,0.29638,-0.9862,-1.1989,0.52085,-1.3819,0.17625,-1.131,-0.23184,-0.6357,-1.3482,-0.88321,-0.76594,-1.5545
-0.043768,-0.46416,-1.547,-0.1166,-0.37447,-0.84668,-0.31179,-0.33225,0.56971,-0.95942,-0.75452,-0.16572,0.17333,-1.2694,-0.366,-0.30738,0.48017,0.3536,-0.0025534,-0.79621,-0.67392,-1.3237,-0.77241,-0.018474,-1.3691,0.5357,-0.98476,-0.82034,-0.62709,-0.41815,-0.28219,0.83445,0.32723,-0.055777,-0.48926,-1.4601,0.34707,-0.95962,0.11526,0.90301,-1.0329,-0.33726,-1.1738,0.84299,-0.79591,-0.74382,-1.3121,0.030627,-1.0627,0.2622,-1.481,-1.2139,-0.59445,-0.89104,0.34484,-0.4384,-0.62284,-0.6637,-0.91867,-1.3035,-0.53268,-1.3299,-0.34599,-1.2167,-0.30093,-0.25428,-0.59872,-0.12894,-0.36668,-0.49815,-0.77475,0.021242,-0.070168,-0.29684,-0.90372,-0.96046,-1.4478,-0.74579,0.069908,-1.5537,-1.0017,-0.25255,-1.6265,-0.49668,-0.13271,-0.20425,-0.27135,-0.023487,-1.1278,-1.4908,-0.67521,0.86836,-0.67579,-0.60787,0.76502,-1.2323,-0.8804,0.18694,-0.10646,-0.11082,-0.3301,0.035384,-1.4126,-1.3551,-0.72149,-0.56843,-0.38057,0.20157,-0.19154,-0.0068499,-0.51406,0.22229,-0.83219,-0.87771,-0.49997,0.14765,-0.30257,0.11386,-1.0063,-0.16161,0.36794,-0.69071,-1.3727,0.27498,-0.15212,-0.88313,-0.9882,-1.0064,-0.9371,0.4962,0.83028,-1.4485,-0.79046,0.18937,-1.1537,-1.7924,-1.354,0.07966,-1.2765,0.1793,-0.54384,-0.71426,-1.2786,-0.37407,-0.44975,0.99351,-1.3205,-0.6326,-0.60539,-0.17065,-1.3885,0.11565,-1.2526,-0.71472,-0.23747,-0.28883,-1.2333,0.11717,-0.3083,-0.79388,-1.5575,-1.056,0.52052,-0.73455,-0.1908,0.28064,-1.208,-0.61578,-0.41585,0.55071,-1.2983,-1.293,-1.1444,-0.33295,-0.24744,-0.85753,-1.327,-0.9012,-0.56274,-0.9615,-0.2867,-1.5004,-1.4966,-0.16846,-1.3078,0.35068,0.068393,-1.037,0.16986,-1.1036,-0.48237,-0.97359,-0.083855,-1.47,-1.3421,-1.3202,0.37126,-1.1418,0.4356,-1.5421,0.44105,-1.3112,0.38991,0.09311,-0.23851,-0.93618,-0.051676,-0.099873,0.087976,0.067699,-1.1099,-0.64691,0.18583,-0.045956,0.2212,-0.11533,-0.62189,-1.7205,-0.37526,-0.97097,-0.39992,0.27602,-0.54895,0.16459,-0.8157,-1.1399,-0.14589,0.066708,-0.47763,-1.3731,0.12739,-0.76328,-0.91362,-1.3409,-1.1177,-0.22234,-1.0585,-0.56171,-0.15462,-1.3199,-1.3566,-1.135,-1.38,-0.37117,-1.6874,0.11714,-1.239,0.53268,-0.89613,-0.68852,-1.5243,-0.81185,-1.0294,-0.20172,0.10023,-0.88278
0.080512,0.66208,-1.5143,-1.2081,-1.5941,0.25223,-0.75031,0.3293,-0.67484,-0.62136,-1.0497,-1.1519,-1.2574,0.29048,0.23313,-1.0611,-0.75459,0.030544,-1.3353,-1.8146,0.91109,-0.76078,0.096129,-0.6474,-0.83423,1.4355,-0.45521,-0.36111,-1.4362,0.3505,-1.4085,-1.4102,-1.0112,-1.1832,-0.02518,-1.8186,0.14414,-0.73384,-1.8228,-0.68258,0.0012478,1.1801,-0.51788,-0.94277,-0.23347,-1.5438,-1.0566,0.5996,-1.5973,0.40822,-0.9111,-0.33657,-0.46746,-0.95562,-1.3539,-0.51905,1.4379,-0.66048,0.22344,-1.229,-0.40182,-1.0896,-1.3302,-1.5461,-0.94007,-0.86752,0.49814,-1.1884,-1.1739,-2.128,-1.879,-0.87158,0.60915,-0.12591,-0.084461,-1.0793,-1.859,-0.28308,-0.013273,-1.008,-0.30844,-0.53762,-1.5799,-0.58368,-2.1828,-1.6895,-1.4385,-1.366,1.2376,-0.3718,0.18498,-0.29948,0.42533,0.29769,-1.2564,-0.11146,-0.65604,-0.72366,-0.013247,-0.37291,-0.18719,-0.26088,-1.304,0.89447,-0.015517,-1.3896,0.13356,-0.66333,-0.18231,0.35263,-0.55852,0.17867,-0.98302,-0.079429,-1.2918,0.34711,0.89202,-1.0706,0.70637,-2.4413,0.26954,0.028602,-1.109,-0.59543,-1.325,-1.8623,-0.56164,-1.207,-1.167,-1.2051,-0.77903,0.41118,-0.4116,-0.15935,0.27926,-0.65633,-0.020097,0.88503,-0.085975,0.81796,-0.36228,-0.53171,-0.83901,-0.66917,0.35135,-0.79839,0.45845,1.0291,1.0441,0.067853,-0.84484,-0.557,1.0212,1.3382,1.0123,-0.31517,0.5939,0.63822,-1.2634,-1.7565,-1.1795,0.27004,-0.51968,-0.59627,-0.75121,0.78864,-1.5898,0.33506,1.4607,1.7185,-0.46288,-0.042949,0.0074498,-0.25754,-1.1679,-0.33072,-1.5503,-0.83032,-0.99784,0.47035,-0.999,0.63612,-1.236,-0.027675,0.20443,1.5628,0.55312,-0.46598,0.13638,-0.66759,-0.49814,-0.11884,-1.2335,-0.71122,0.58448,-0.40439,-0.51245,-0.16627,0.32784,0.31822,-1.2811,0.20365,0.71157,1.669,-0.2264,-0.57592,0.080402,-0.62544,-0.42232,-0.88109,0.33097,-0.1756,-0.28481,1.7845,-0.38024,0.41,0.40034,-0.3235,-0.20685,-0.23858,-0.49581,0.032891,0.20449,0.18555,-1.4086,-0.65905,-0.38465,-0.53903,0.78047,1.2103,0.81565,0.17617,0.62368,0.59108,-0.12003,-0.99353,-0.86254,-0.89222,-1.3944,-0.49416,-1.3373,-1.6231,-1.3073,0.51425,-1.1869,-0.74917,0.29498,-0.18743,0.52391,-0.0070517,0.10599,0.15276,0.16981,0.33162,-1.2073,-1.369
0.27293,-0.89109,-0.24921,-0.22075,0.76875,-0.41774,-0.32704,0.7682,-0.069662,-1.4169,-1.0496,-0.082226,-0.94315,-1.2997,-0.15953,-0.0052073,-0.66831,-1.3462,-0.96226,0.61288,-0.027112,1.3886,0.12708,1.46,-0.23874,-0.70179,0.46516,0.18203,1.0452,-1.3348,-1.4886,-1.7171,-1.1375,-0.83558,0.26533,-0.58579,-0.28867,-0.89971,0.18475,-0.4051,-0.3286,0.63305,-1.4459,-0.082126,-1.1833,-0.29362,-1.5918,-1.5199,-0.3798,-0.73935,-0.46339,-1.4283,-0.15166,-0.40912,0.50225,-0.10431,-0.21324,-1.0518,0.0077367,-0.73053,0.64854,-0.064848,-1.393,-0.12915,-0.40137,-0.09734,-0.37302,-0.81088,0.031304,-0.90495,0.26764,0.24071,-0.11398,-1.2514,-0.097161,-0.85954,0.14196,-0.11943,0.2062,-1.5532,0.1457,-0.78486,-0.30608,-1.0321,-0.12074,0.96978,-0.038714,1.14,0.090261,0.31002,-0.11533,-0.15364,0.8244,0.019096,-0.076541,-0.43574,-0.35348,-0.44193,0.39865,0.4113,-0.25159,-1.7121,-0.68134,-0.042691,0.42412,-0.057621,-1.4822,-0.86623,-0.17727,0.3916,-0.76646,-1.3265,0.082877,-1.7695,-0.94303,-0.11308,-0.071319,-1.0837,-0.26817,1.6448,0.067633,-0.31039,0.84298,-0.74615,-0.98696,0.67645,-1.3619,-0.25681,-0.94555,-1.5609,0.13906,0.92681,0.33336,-0.32116,-1.2153,1.6025,-0.50594,-0.24039,-1.0807,-1.2636,-1.0005,-0.9888,0.53402,-0.9515,0.53915,0.24482,0.41125,-0.71257,0.30625,-1.3741,-1.7018,1.3245,0.073983,-0.7004,-1.0104,-0.050241,-1.64,-1.9679,-1.6614,-1.2786,-1.0914,-0.16526,-0.52205,-0.043166,-0.52555,0.062829,-0.16975,0.82732,-0.27856,-0.42594,-1.1206,-1.4549,-0.33182,-0.35682,0.015217,-0.97512,0.23459,-1.3543,0.28752,-0.38083,-0.18526,0.095434,-1.002,0.86757,-1.1048,-1.0527,0.53739,-0.51659,0.078694,-0.38847,-0.07941,-1.345,-0.75746,-0.31982,0.88036,-1.2379,-0.79322,-0.28459,0.40001,-0.267,-0.20084,0.06678,0.79255,0.88914,-0.39477,-0.49247,0.23672,-0.8121,-1.4206,-1.0286,-1.0856,0.67603,0.14883,0.77967,0.034428,0.51304,-0.60238,-1.2047,-0.7955,0.64511,-0.96898,0.019057,-1.529,0.10354,-0.75288,-0.84726,0.057843,-0.54838,-1.3826,-0.81611,-1.0643,0.8743,-0.44604,-0.22679,0.186,-0.42056,0.93224,0.25209,-0.063106,0.0085135,-0.45808,-0.91539,-0.51734,0.16764,-1.7461,-0.43344,0.56418,0.68926,-0.25748,-1.7639,-0.006313,-0.32581,-1.0697,-1.4505,0.27002,-1.0429
0.28106,-1.5778,-0.056292,0.50522,0.28918,-1.8692,0.28629,-1.2369,-0.96544,-1.1671,0.19547,-0.76027,-0.32632,0.4893,-1.0292,-0.74797,-0.71777,-1.2461,0.45308,-0.29554,0.032437,-1.3143,-0.62879,-0.93088,-1.6778,-0.55296,-1.9446,-0.78597,-1.4324,-0.95734,-0.66434,-1.1756,-1.5469,-1.0032,-0.0071228,-1.501,-0.44979,-0.34729,-1.0183,0.75891,0.30867,0.32372,-0.028022,-0.23967,0.1593,0.38175,-1.0374,0.52973,0.19393,-0.42333,-0.60803,-0.44877,-0.11362,-0.80256,-0.45322,0.15931,0.048521,0.25866,-0.2031,0.076789,0.082211,-0.14707,-0.16417,-0.45066,-0.5112,-0.36535,0.39168,0.38811,0.69431,0.9533,0.32977,0.017563,0.59215,0.42616,0.46615,1.1438,0.079651,1.4408,-0.91592,-0.61314,-1.4652,-0.68577,-1.1583,0.51145,0.51805,0.75162,0.48468,-1.8132,-1.0313,0.36329,-0.1103,0.64892,-0.68267,1.0993,-1.5339,-0.76267,-0.38217,-0.40183,0.33231,1.3268,1.3088,0.76655,-1.6068,-1.4155,-0.97834,0.2532,0.50598,-0.22469,-0.4609,-0.28524,0.70204,0.4287,-1.6462,-0.97558,0.74424,0.69069,1.3165,0.2733,-2.0703,-0.4901,0.10436,0.0018322,-1.0276,0.3918,1.3778,-0.51586,0.99839,0.11566,-0.55947,-1.8729,0.40369,0.72667,0.13005,0.43342,-0.47568,-0.21776,-0.036908,-0.16064,-0.50069,-0.28514,0.77516,-0.21483,1.2806,0.037546,-1.0493,-0.23183,-0.26128,2.4394,1.8485,0.16305,0.1397,-1.7924,-1.0028,-1.3075,-1.2372,-0.25507,-0.65759,-0.24322,-0.70838,-0.32,-0.548,-0.19669,-0.10637,0.053058,0.86085,0.17345,-0.88416,-0.6564,-1.4863,-1.5539,-0.75413,-0.69861,-0.10922,-1.5116,-0.16211,-1.7414,-0.29509,-1.0561,0.74523,1.5432,-0.084438,1.3149,-1.1708,0.79122,-0.0058485,0.82167,-0.28027,-0.16343,-0.83815,-1.0878,0.15567,-0.29199,-0.6014,-1.0244,-0.1299,0.40097,-0.068026,-0.29763,0.70712,-0.50534,0.26932,0.45061,-0.77322,-1.1894,-0.39958,-1.0181,-0.27487,-1.2101,0.79412,-0.82191,-0.60924,-0.99942,0.4844,0.45888,-0.4513,0.27578,-1.159,-0.51803,-1.0037,0.14318,-0.14693,0.19239,-0.6694,-0.41754,-1.6449,-0.57982,-0.023923,-0.4491,-1.2985,-1.5564,-1.9991,0.45959,0.015802,-1.1001,-0.39015,0.055804,-0.18596,-1.2011,-0.82463,-0.52806,-1.6315,-0.10759,-1.2185,-0.21683,0.8583,-0.61622,-0.37898,-0.15691,0.11289,-0.0032835,0.053424,-0.75112,-0.44337,-0.90567,-0.58672,0.40984
0.15158,0.60356,-0.4406,-1.8655,-1.2727,-1.0795,-0.87416,0.55017,-0.64854,-0.97279,-1.1172,-1.3307,-0.81387,0.60438,-0.64554,-1.898,-0.80197,-1.1123,-0.77973,-0.61759,-0.4485,-1.9011,-0.76732,-0.8475,0.50974,-1.9367,-1.1164,0.55429,0.21695,0.071625,-0.87347,-1.4287,-1.8569,0.055566,0.12741,0.29956,0.11993,-0.35269,-0.74982,-1.1628,-1.9839,0.00020041,-0.46141,-1.329,0.57788,-0.33303,0.0060386,-1.2906,-1.2748,-0.17558,-1.4624,-0.65178,-0.45399,-0.23953,-0.78837,0.53253,-0.54416,-0.21584,0.02197,0.19512,-0.92761,0.09267,-0.14314,-0.96008,-1.1255,-0.78479,-0.93298,-1.0209,-0.94852,-1.3181,0.42679,-0.13594,-0.00055285,-1.1239,-0.6885,0.18609,0.93716,-0.28648,-0.9564,0.42606,-1.2666,-0.4929,-0.30697,0.24727,0.032259,-0.86663,0.2374,-0.35434,-1.1079,-1.2286,0.35519,-0.53928,-0.79473,-0.34449,0.4922,0.29545,-0.6283,-0.39434,-1.2466,-0.6934,-1.2491,-0.84656,-1.2942,-0.65566,-1.6131,-0.2325,0.032536,0.5352,-0.071133,-0.20856,-0.089907,0.028319,-0.54647,-0.3222,-1.1795,-1.0554,0.80748,0.59044,-1.2027,-1.2018,-0.54732,-0.21651,-0.4822,-0.49172,-0.82446,-0.87355,-0.1521,-1.0504,-1.3011,-0.15974,0.25195,-1.6411,-0.18137,0.53033,-0.77102,-0.71184,-1.3783,0.32236,-0.52427,-1.8727,0.71618,-1.4403,-0.12966,-1.1396,-1.1675,-0.27575,-0.39648,-0.23451,0.20796,-1.1712,-0.93755,-0.4841,-0.24306,-1.0181,-0.21284,-1.0466,-0.53135,0.11238,-1.1264,-1.6061,-0.75621,-1.078,-0.31446,-0.39206,-0.99506,-1.1896,-0.14892,-0.72112,-0.98818,-1.0975,-0.061025,-0.5847,-0.1932,-0.52095,-0.82054,-0.48827,-0.69146,0.29815,-0.2026,-1.7755,-1.2383,-0.30876,-0.23323,-1.2256,-0.12871,-0.95908,0.88757,-0.087439,-0.5271,-1.3551,-1.5479,-0.47112,-1.3238,-0.16942,-0.30558,0.23093,-0.63115,0.57546,0.44752,-0.31525,-0.29936,-0.013707,-1.2959,0.45359,-1.0625,-0.97218,-0.57861,0.067677,-0.85634,-1.2282,-1.5483,-1.7427,-0.53993,-0.95668,-0.98757,-0.76838,-0.57035,0.64425,-1.0269,0.31151,-1.7385,0.35438,-1.5343,0.69743,-0.30197,0.68651,0.57359,-1.5606,-0.74662,-1.8434,-1.5941,-0.3454,-1.2022,0.47449,-0.75425,-1.1116,-1.4063,-1.7559,0.60205,-0.1145,0.39652,0.2455,-0.069953,0.47051,-0.17939,-0.22321,0.69156,-0.98986,-0.3746,0.081552,-0.95642,-1.2386,-1.5212,-1.3644,-1.1953,-0.51724
0.029617,-0.9961,-1.0185,0.36955,-0.025565,-1.298,0.41229,0.52495,-1.0225,-1.2589,0.021582,-1.0693,-0.19627,-0.90218,-1.0222,-0.11541,-1.2742,-0.56772,-0.083124,-0.11167,-0.16078,-0.13215,-1.2784,-0.75632,-1.4063,0.068147,-0.016377,0.16709,-0.7744,-0.053205,-0.8262,-0.10657,0.3726,0.30996,-0.64413,0.54725,-1.3139,-1.6639,-1.8354,-0.094353,-0.523,-0.53819,0.24316,0.13127,-0.63575,-0.81573,-0.62787,-0.92768,0.20986,-0.35342,-0.11082,-1.4768,-0.84603,0.063308,0.83631,0.35883,-0.018313,0.20401,-0.51616,-0.79407,-1.0838,-0.14488,-1.4012,-0.35624,-0.27964,0.20845,-1.0714,0.40211,-0.96412,-0.3911,0.092946,-0.47385,-0.17005,0.73975,0.10947,-0.6705,-0.19515,-0.32238,-0.17528,-0.74678,-0.060333,-0.46099,-1.558,-0.35155,0.39633,0.43141,-0.35898,-1.4912,-0.98368,0.045199,-0.36925,-0.22192,-1.4286,-0.88693,-1.1233,-0.67859,0.084531,-0.069488,-0.64465,-0.75564,-0.97866,-0.87754,-1.4843,0.26427,-0.10997,-0.22987,0.59651,-1.3864,0.10196,-0.47055,-1.2942,-0.042547,-0.035317,-0.80649,-1.0306,-0.10254,-1.7942,0.098587,-0.71937,-0.82303,-0.66221,-0.68247,-0.51347,-1.212,-0.76455,0.40139,-1.1943,0.092091,-0.30538,0.20364,-0.68319,-0.32569,-0.72655,-0.80243,-0.67294,-0.71156,-0.67671,-0.83144,-1.3305,-0.55754,-1.0782,-0.36051,-0.12138,0.29066,-0.008427,-1.4604,-1.252,-0.80499,-1.3929,0.13002,0.08749,-1.0688,-0.61834,-1.2395,-0.63797,0.092931,-0.12294,0.12672,-0.22618,-0.67247,0.4905,-0.53396,-0.66041,-1.3278,-0.48541,0.77053,-1.7786,0.24543,-1.204,0.13073,-1.8028,-0.49896,0.067785,0.53564,-0.98079,-0.67834,-1.1894,0.65333,-1.2404,-0.39524,-0.60037,-0.37851,-1.2208,-1.0566,-1.2206,-0.38077,-0.25338,-0.61721,0.30613,-0.99914,-1.0944,0.54717,-0.64916,-0.53981,0.36747,0.019736,-0.54364,0.52842,-0.69167,-1.4875,-0.53314,0.47601,-0.46519,0.20208,-1.3899,0.096673,-0.90285,0.52077,-1.1497,0.25791,-0.2526,0.63828,0.088708,-0.95649,-0.95124,0.35861,-0.11712,-0.46657,-0.57119,-0.09434,0.15891,0.33839,0.078892,0.5296,-0.33095,-0.74484,-0.37401,0.59225,-0.983,-1.8098,-1.4702,-1.0842,0.52627,-0.71898,-0.92765,-1.5061,0.71858,0.35072,0.71766,0.14077,-0.32617,0.14171,-0.18886,0.7976,-0.20805,-0.67283,-0.61433,0.25158,0.12185,-1.533,-0.46468,-0.90897,-1.0255,-0.73752,-0.96295,-0.25548
0.33034,-0.37806,-0.64178,-0.58832,-0.62033,-0.7942,0.095572,-1.1095,-0.63486,0.67594,0.12332,-0.76919,0.4478,-1.2163,-1.18,-1.7009,0.10606,0.0019664,0.44068,0.3038,-0.14195,-1.5852,-0.02757,0.060545,0.13325,0.22518,0.89291,-1.3303,-0.19006,0.14115,-1.3783,-0.5377,-1.1826,-0.27409,-0.1112,0.057343,-1.8705,-2.2923,0.46085,-0.68114,-0.024113,-0.79354,-2.0308,0.77583,0.06978,0.26429,-0.96152,-1.5287,-0.76224,0.92106,-0.65075,0.090082,-1.4316,-1.9902,-0.79993,-0.31634,0.36461,-1.4729,1.0813,0.87618,-1.2036,-0.53148,-0.41045,0.37127,0.16524,-0.7087,0.14367,-0.27934,-1.6406,-1.3068,-1.9335,0.034482,0.13329,-0.40836,0.95381,-0.30166,-1.1844,-1.1097,-1.5679,-0.89113,-0.25278,-0.37772,-1.2393,-0.33516,-0.15822,-1.1984,0.50867,0.19671,0.86551,0.78891,-0.49045,0.11072,1.4138,0.05928,-0.99976,-0.71001,-0.68518,-0.53509,0.49728,1.6074,-0.22166,-0.4288,-0.36164,1.1129,0.44209,0.032563,1.4219,0.91848,0.80938,-1.0578,-1.1585,0.57064,-0.99079,-0.24682,-0.32323,0.74656,0.71831,-0.50428,0.036755,-0.36552,-0.012799,1.2158,1.0312,0.54358,1.5369,-0.52319,-1.687,-0.60436,0.58995,0.39921,-0.24464,0.4177,0.28358,-0.27534,-0.37497,-0.25548,0.21623,1.1474,0.701,0.011676,-0.65249,0.55437,0.5501,0.048257,0.24313,-0.54122,-0.77493,-0.43247,1.3107,1.8353,-0.23705,-0.31279,0.17403,-0.71994,1.1016,0.19444,-0.51395,-1.2914,-1.225,-0.69092,-1.0887,-0.90203,-0.75806,0.57698,1.114,1.215,-0.33958,-0.49615,-0.37862,0.28508,-0.54746,0.051184,-0.90763,-0.66854,-0.51165,-0.32836,-0.10579,-0.58997,-0.94126,0.76486,-0.36983,0.40271,0.63917,-0.77533,0.51415,0.36241,-0.36474,-1.204,0.37489,-1.2327,-0.68856,0.41736,0.79439,0.20898,0.60471,0.61306,0.13605,0.73352,-0.93897,-0.17019,-0.70973,-1.7662,-1.0887,-2.2184,-0.9717,-1.3673,-1.2472,-1.0437,-0.30603,-1.0815,-0.041039,2.1921,-0.15222,1.0364,0.34534,-1.1716,-2.1588,-1.1844,-1.3921,0.29523,-0.19549,0.6525,0.057545,-1.7436,0.29839,0.51006,-1.6491,0.24755,0.16697,0.30523,-1.8036,-2.1046,-2.3465,0.63683,-0.052786,-0.83757,-0.032238,0.35732,-0.02873,-0.67479,-0.7278,-0.67531,-1.1093,0.12602,-1.0776,-1.3353,-1.8286,-1.1515,-1.6919,-0.9001,-1.1231,0.42471,-1.5207,0.48354,-0.56913,-0.6369
0.35814,0.15793,-0.37502,0.80428,0.46589,0.61994,0.62563,-0.76904,0.51908,0.1034,-0.77484,-1.2565,0.11211,-0.50163,-1.5409,-0.17944,0.23634,-0.43235,0.035486,-1.2283,-0.026722,0.066446,-1.2476,-1.2172,-0.70975,-0.77816,-1.4079,-0.96203,0.38621,-0.43976,-0.42918,-0.0893,-0.99617,-1.1655,0.066457,-0.38316,-1.2327,0.19066,-0.40745,0.46501,-1.0291,-0.543,-1.1739,-0.63765,-1.2261,0.022928,-0.12481,-0.7102,-1.785,-0.9801,0.20831,0.21216,0.035403,0.15352,-0.9421,0.28618,-1.2769,0.28623,0.27909,-1.6852,-1.2052,-1.0543,-0.89544,-0.96376,-0.59986,-1.7242,0.43658,-1.1221,0.72918,-0.16333,-1.2144,0.66072,-0.012392,-0.34885,-1.1473,-0.48374,-1.343,-1.2914,-0.74613,0.44216,0.16252,-0.9235,-1.7927,0.67367,-1.5851,0.41772,0.0035411,-0.11643,-0.78797,-1.2985,-0.86106,-0.048848,-1.8978,-1.4109,-0.51137,-0.90133,-1.4804,-0.31966,-0.89951,0.15515,0.04329,-1.6871,-0.89,-0.83714,0.062331,-0.65402,-0.99208,0.39296,0.51312,-1.4562,-0.52361,-1.3535,0.022532,-0.1864,-0.33455,-1.1541,-0.95458,-0.29927,-0.16962,0.30712,0.026988,-0.29964,-0.6224,0.16021,-0.70781,-0.70057,-1.0221,-0.27616,-0.17904,0.50188,-0.90954,0.36407,0.25127,-1.7346,-1.8119,0.59997,-0.89629,0.75326,-0.62776,-0.61289,-0.71639,-0.13983,-0.76255,-0.40855,-0.77424,-0.9082,0.023159,-1.3641,0.75301,-0.049678,-0.67504,-1.172,-1.4991,-0.27088,-1.8125,0.78167,-0.20733,0.08231,-0.5146,-1.126,-1.7645,-0.48001,0.05992,0.039944,-1.2016,-1.3383,-1.3607,0.62113,-0.68569,-0.60129,-0.85819,-1.6283,-1.5193,-1.399,-0.34589,-1.4195,-0.75994,0.08162,-1.1374,-1.1242,0.36872,0.094176,0.19069,0.59109,0.52404,-0.57603,-0.56917,0.4058,-0.29788,-0.53088,0.59661,0.2935,-0.88356,-1.0959,0.11254,-1.9236,-1.3466,-0.71532,-1.3637,-0.25104,-1.0446,-0.8351,-0.017151,-0.91812,-0.95907,0.065161,-0.32607,0.23774,-1.114,-0.44193,-1.3188,0.64383,-0.39793,-1.4348,-1.4654,0.85224,-1.9004,-0.28829,0.25002,-1.2159,-0.34876,-1.3211,-0.79234,-1.1797,0.66615,-0.74436,-0.75912,0.17721,0.5023,-1.229,-0.35507,0.058074,0.30274,-0.56406,-0.73819,-0.74444,-0.89746,0.0066083,-1.6969,-0.36095,-0.34707,0.87328,0.1038,-1.2756,-0.63516,-0.1427,-1.253,0.79873,-1.2049,-1.3169,-1.2649,-0.45624,-0.90438,-0.25016,-0.6054,-0.64919
-1.337,-1.8126,-1.447,-1.0936,-1.578,-1.8322,-1.4584,-1.7133,-0.51361,-1.5908,0.59091,0.80599,-1.1373,-1.0003,0.57753,-1.2732,0.64019,-0.34517,-0.36411,-1.2212,-0.52593,-0.44478,-0.55545,-1.049,-0.59465,1.0307,-0.30024,-0.90193,0.30265,-0.33275,-0.72186,0.39803,-0.63545,-0.96944,-0.13194,0.00062807,-1.0483,-1.3754,-0.053516,-0.96112,0.095882,-0.69466,0.14831,-0.07928,0.67184,-0.73937,-0.041229,-0.92268,-0.25894,-0.49037,-0.27143,0.40398,-1.0358,-0.31098,-0.23171,0.43702,-1.2812,-0.099277,0.17704,-1.3811,-0.66136,0.25463,-1.2199,-0.56441,-0.63337,-0.40503,0.62625,0.81862,0.74994,-1.0696,-1.1843,0.94273,0.59157,0.80885,-0.76305,-0.055291,-0.73009,-1.0437,-0.50135,-1.7695,0.057448,-1.4876,0.41864,-0.62036,0.37938,-0.87675,-0.86548,-0.91139,0.39108,1.28,-0.5578,-0.38516,-0.034958,-1.1082,-1.1918,-0.033008,-0.76245,-0.3257,0.68135,-1.5193,0.4253,-0.33155,-1.1042,-1.0266,-1.3178,-0.65869,-0.043,-0.83554,-0.64727,-0.53915,-1.7937,-0.02542,-0.95582,-1.0975,-0.93328,-1.6583,-1.2516,-0.31882,-0.7409,-0.80573,0.19234,0.63323,-0.91227,0.63205,-0.85766,-1.4801,-0.76705,0.1745,-0.75695,-0.25459,-0.64257,0.63829,-0.59133,-0.49335,-1.0308,0.041706,-0.014506,0.026419,-1.1067,-0.40834,-0.67154,-0.58505,-0.68619,0.35278,-0.83477,-1.0379,-0.38826,-1.4751,0.10653,0.814,0.75395,0.56576,0.82473,0.075556,1.2315,0.72923,0.26726,-1.1077,-1.4913,0.076569,-1.1676,0.42759,-0.28943,-0.049706,1.3828,-0.94001,-0.68555,-0.36127,0.37348,0.26622,-0.63127,-0.34219,0.080643,-0.95424,-0.050651,-1.3829,-1.9851,-0.076375,-1.2653,0.51094,1.3153,-1.1188,-0.25238,-0.66001,-0.26183,-0.64439,-0.37754,-0.36855,-0.71691,-0.93054,-1.1343,0.31962,0.18293,-0.13029,-0.42578,-1.3289,1.2347,-0.87154,-0.79153,-1.6092,0.83882,0.38851,-0.31774,-0.067091,-0.23659,-0.53052,0.076622,-0.49691,-0.41919,-1.012,-1.1102,-0.47307,1.3425,-0.65884,-0.74341,-0.0072051,1.0062,0.21118,-0.68535,-0.17892,-0.39004,-1.2368,0.17854,-0.79462,0.08492,0.49483,-0.50617,-0.7941,-0.75256,-0.26002,-0.42302,-0.20229,1.1137,-0.32802,0.21193,0.23538,0.32922,0.068671,-0.87649,-0.8877,-1.2719,-0.19491,-0.16068,-1.0889,-1.1584,-0.96941,-0.51732,-1.2838,0.12487,-0.64002,0.0052576,-1.3598,-0.47677,-0.091142,0.59557,-0.56199
-0.82462,-0.61837,-0.8529,-0.53065,-0.62939,-1.1322,-0.55821,-1.1259,-0.77243,-0.29151,0.78912,0.5945,-1.4065,-1.3731,-1.8539,-0.30122,-1.8443,-0.20423,-1.5654,-0.9523,-0.24453,0.32854,-1.316,-0.96015,-1.3394,0.21256,-1.5676,-0.17441,-0.50255,-0.42624,-0.92128,-0.90936,-0.79634,-1.3206,-1.4918,-1.2527,-1.3869,-0.37845,-0.54542,-1.2926,0.28162,-0.6691,-0.29493,-0.85084,0.3583,-0.97008,-0.60302,0.20954,-0.98481,0.19305,-0.12723,-0.364,0.20268,-1.0629,0.49038,-1.0358,0.26361,-0.48345,-1.0177,-0.15078,0.077888,-0.42659,-0.85051,0.099791,-0.13956,0.43738,0.51088,-1.0453,-0.60053,-1.3485,-0.34059,-1.0057,0.70971,-0.84065,-1.7477,-0.19628,-1.0921,-0.8291,-1.7378,-1.3203,-0.88495,-1.5104,-0.16679,-1.5148,-0.98194,-0.57196,0.22578,0.084704,-0.84509,-0.18678,0.046046,-0.15933,-0.17765,-0.10335,-0.67347,-0.57268,-0.3508,-0.30065,-1.0694,-1.0871,0.24374,-0.49567,-1.772,-0.25889,-0.31252,-1.1136,-0.10412,-0.23864,-0.65287,0.51059,-0.55646,-1.0088,-1.204,-1.3022,-1.6775,-1.3532,-0.26717,0.84766,0.12965,-1.0359,0.34952,-0.063787,0.14036,-0.27379,-0.86105,-0.92596,-0.2003,-0.0059364,-0.82191,0.52413,-0.45324,-0.41868,-1.07,-0.87354,0.543,-0.39999,0.035515,0.19786,-0.5615,-0.21187,-0.33605,0.20694,-1.506,-0.34953,-0.11861,-1.6845,-1.2295,0.078854,0.67234,0.47096,0.11901,0.17018,-0.9351,0.12738,-0.31585,0.16492,-0.24209,-0.54464,-1.5321,-1.9577,0.010451,0.3609,-1.2991,-0.78488,-1.1443,-0.18717,-0.57633,-0.095388,-0.78503,-0.32868,-0.34323,0.6837,-0.40805,0.44707,0.6179,-1.4035,-0.099308,-0.10426,-0.65054,0.27957,-0.74255,-0.31643,0.52604,-0.10315,0.469,-0.86928,-1.7237,-0.56188,-0.047053,-0.41584,-0.71259,-0.27972,-1.1895,-0.53739,-1.6916,-0.45166,-0.020046,-0.66053,-1.5152,-1.2999,-0.9719,-1.7422,-1.8921,-0.70717,0.24777,-0.40672,-0.3742,0.33153,0.39394,-1.0222,-1.6737,-0.097442,0.54227,-0.82071,-0.83202,-1.2288,-1.3528,-0.20893,-0.93266,-0.35201,-1.4269,0.78781,-0.91008,-0.54374,0.21224,0.10306,-0.47356,-0.86515,-0.85693,0.15054,0.40411,-1.0109,-0.935,-0.0096493,-0.57301,-0.22114,0.083681,0.16283,-0.4793,0.2032,-0.42506,-0.10342,-1.7644,-0.98633,-0.53232,-1.0626,-1.3337,-1.2534,-0.11426,-0.45087,-0.32285,-0.5528,0.26411,-0.51109,0.4092,-0.97773
-0.53861,-1.5089,0.43415,-0.7516,-0.5497,-0.8886,-1.1168,-0.24172,0.51097,-0.68732,-0.60851,-1.787,-0.79426,-0.39784,0.072041,-0.98318,-1.6104,0.35478,-0.87836,-0.90726,-0.87045,0.66122,0.40341,-0.30061,0.10421,-0.45834,0.67481,-0.84885,0.67891,-0.23453,0.027161,0.251,-0.87339,-0.3061,-1.3694,0.057246,-0.50052,-0.46639,0.40092,1.0728,0.09764,0.41035,-0.04779,-0.125,-0.61444,-0.8351,-1.0721,-0.12408,-1.4698,-0.55296,-0.075263,0.51138,-0.15114,0.80012,0.072454,0.22329,1.3928,1.8304,0.88897,0.78606,0.44427,0.54891,0.29849,0.090979,-0.22293,-0.32708,0.12824,-0.87574,-0.42108,-0.5895,0.58732,-0.1526,1.329,-0.021143,1.3264,1.1678,-0.39494,-0.37975,-0.32053,-0.089223,-0.27068,0.37069,0.95692,-0.72015,0.35595,-0.082334,-0.37295,-0.37336,-0.53562,0.20363,1.3348,0.23334,0.9511,-0.75972,-0.90082,-0.48655,-0.7453,-0.49423,0.38786,-1.7401,-0.54697,1.2358,0.82649,-0.51385,0.41004,1.1212,0.55603,-0.46593,0.13463,-0.092233,-1.5173,-0.01031,0.22384,0.09398,-0.65737,-0.56744,0.7958,-0.015208,0.50235,0.091345,0.69731,0.50745,-0.51117,-0.32613,0.72699,-0.40127,-0.39194,-1.098,-0.36824,-1.5723,-1.6855,0.61757,-0.4588,-1.1035,1.1033,-0.97582,0.4024,0.25978,0.81409,0.79871,0.26088,-1.4549,-0.35645,0.019468,-1.4625,-0.040517,0.77775,0.15979,0.50142,0.86094,0.95427,0.53733,0.43056,-0.86365,0.72347,1.369,0.1788,-1.6913,-0.7729,0.21384,0.047937,-0.10029,-0.14098,-0.76654,0.72716,1.3036,0.41363,-0.435,0.67402,0.79048,-0.78387,-0.3934,-0.76852,-1.2673,-0.39422,-0.19467,-0.50161,-0.73348,-0.0032886,-0.36236,0.19405,1.0929,0.42671,-0.65145,-0.59205,0.28916,-0.4468,-0.28482,0.14337,0.46618,-0.095905,0.048975,-0.2124,-0.77644,0.52428,-0.62003,0.152,0.3461,-0.22901,0.71206,-0.28826,0.54176,0.29999,0.61616,0.035982,-0.17563,-0.95161,0.23897,-0.020557,-0.66407,-0.20806,0.84733,0.77103,0.65413,1.7942,1.4988,1.4025,0.41525,0.046052,0.40599,0.24279,0.62158,0.38247,-1.6332,-0.20935,-1.3125,-0.8442,0.35109,-0.51403,0.82807,1.0053,1.0691,0.39778,0.76546,0.48378,0.74395,-1.0618,-0.60678,-0.96154,0.090033,-1.6467,-0.3939,-1.5109,-0.86442,-0.73054,-1.2527,-0.20035,-1.2102,-0.10441,-0.50059,-1.6673,-0.4029,-0.61875,0.18481,-1.0878,0.038892
-1.1875,0.13656,-1.971,-1.3376,-0.25625,-1.918,-0.64285,-1.0073,0.3029,-0.75953,-1.4377,0.040483,-1.3613,-0.18135,0.80193,-0.41939,0.079839,-0.77544,0.07858,-0.34495,-0.81467,0.44318,0.089157,-1.7944,0.85904,0.48521,-0.79336,-0.19964,-0.66289,0.59997,-0.16247,0.39999,0.84024,0.69631,-1.6823,0.49899,-1.5414,-1.402,-0.79233,-0.54422,-1.0822,-0.12927,-2.0903,-0.88681,-0.47824,-1.503,-1.0431,-0.098381,-0.59173,-0.0083733,0.44161,-0.037686,-0.95493,-0.87204,-0.19666,0.074694,-0.6784,-0.9572,-2.0287,-0.95726,-0.41576,-1.7361,-0.20537,-1.5692,-0.9627,-1.3228,-0.42092,-0.4462,-0.17956,-1.655,-1.4917,0.3929,-0.76599,-1.1845,-1.235,-0.5553,-0.74398,-0.66766,-1.0541,-0.6799,-0.14304,-0.051818,-0.26868,-0.13805,-1.5282,-0.62774,-0.48349,-0.38578,0.18558,-0.81922,-0.17363,-0.62004,-0.028671,0.24596,-0.90032,-1.563,-0.30504,0.57914,0.31885,-1.0542,-0.49417,-0.98056,-0.46087,0.55822,-1.1761,-0.34684,-1.2136,-0.7739,-0.7005,-0.89459,-0.46118,-0.64602,-0.74228,-0.31534,-0.48704,-0.19032,-0.60491,-0.81707,-0.039984,-0.50795,-0.88398,-0.51134,-0.73023,-0.9091,-1.0714,0.75502,-1.057,-0.47019,0.87505,-1.3187,-1.5291,-1.0344,-1.5312,-0.79685,-2.2697,-1.7129,-0.35847,-0.378,-0.25546,-0.46546,-0.7834,0.34621,-0.53623,-1.001,0.26953,0.17505,0.13145,-0.90046,-1.1039,-1.2769,-0.86702,-0.84171,0.25629,-0.92279,-0.63504,0.5122,0.41178,-0.0025261,-1.5897,-0.68954,-0.72414,-0.54794,0.02129,-0.11553,-0.41138,0.057239,-1.1076,-0.77895,-0.022694,-0.46107,-0.11868,-1.0256,1.2419,-0.42801,0.62702,-0.3918,-0.68179,-1.3248,0.1776,0.5576,0.019202,0.34451,-0.1119,-0.30325,-0.35667,-0.23662,0.81148,-0.069015,1.6377,-1.0185,0.13249,-0.092917,-0.47342,-1.1144,0.38989,-0.30032,0.91402,0.91089,0.63361,0.92236,2.0221,1.207,-0.32211,1.5043,1.9236,-0.91868,0.29809,-1.4598,-0.15831,-0.56796,-0.23052,-0.076149,0.75301,2.7754,1.4303,0.12393,0.88002,1.1288,1.7002,1.0503,1.7832,0.23632,-0.16564,-0.20045,-0.9446,0.054527,-1.3438,-0.47414,0.37149,0.18394,-0.081284,-0.7246,-0.48209,-0.38498,0.5983,-0.55611,0.0242,0.65621,-0.12937,-1.0114,-0.68546,-0.8256,-0.034909,-1.1125,-1.371,-1.3246,-1.2508,-1.6119,-1.5433,-1.1387,-0.99396,0.85836,-0.54183,0.27143,0.48917,-0.47662
-0.83012,-1.4651,-0.10269,-1.6208,-0.24195,0.29429,-0.68589,0.030798,-0.44706,-1.0471,-0.7501,0.049801,0.075574,-1.3333,-1.22,-1.386,-0.040482,0.028728,-0.98226,-0.94041,0.003419,-0.42229,-0.83909,0.58891,0.0093467,0.3892,-1.0914,-0.72862,-0.010397,0.080986,-0.44789,-0.14187,-0.79179,-1.3932,0.25915,-1.1057,-0.22859,-1.0923,-1.1385,-0.64879,-1.1504,-0.43942,-0.49392,-0.1575,-0.58481,-0.25831,-1.1961,0.083551,-0.92186,-0.86703,-0.25578,-0.18616,-0.89731,0.10228,-0.091653,-1.2976,-0.28512,-1.5555,-0.21266,-0.8762,-0.70555,0.40285,-1.231,-0.4066,0.32641,0.12601,-1.1818,-0.51959,-0.69096,-0.66213,-1.3488,-0.48661,-1.6049,-0.78395,-1.1559,-0.99499,0.7337,-0.7797,0.34057,-1.5942,0.57525,-0.24746,-0.99446,-0.68548,-1.2591,-0.65212,0.55055,0.66594,-0.7777,-1.5996,-1.0653,-0.60406,0.31532,-0.34231,-0.71729,-0.21293,-1.1917,-1.7866,-0.72264,-0.40257,-0.61445,-0.76853,-0.69553,0.50714,-0.91312,-0.90619,-0.57999,-0.67486,0.63434,-1.4913,-1.6148,0.53786,-0.6405,-0.43294,0.79383,-1.1529,-0.1773,-1.4221,-0.9816,0.007049,-0.83593,-0.050378,0.35438,-0.090555,-1.089,-1.2632,-0.12982,-0.72829,0.46823,-0.10272,-0.8295,0.18625,-0.80602,-0.59948,-0.48955,-0.42883,-0.56398,-1.4636,-1.6299,0.77661,-1.3898,0.30972,0.04727,0.69763,0.09254,0.37949,-1.2044,0.016519,0.6454,-0.56338,0.019953,-0.89803,-1.0492,0.35459,-0.55904,-0.42472,0.35715,-0.8236,-1.2237,-0.74183,-0.17363,-1.1974,-0.49552,-1.0966,-0.8157,-1.3095,-0.45698,-0.32328,-1.7487,-0.16558,-0.27689,-0.77333,-1.2137,-0.21419,-1.3794,-1.9365,0.00086289,-0.26259,0.17315,-0.15179,-0.41548,0.47007,-0.16723,-0.98866,-0.83555,0.013716,-0.7904,-0.40323,0.09314,-0.15968,0.19165,-0.17857,0.5902,-0.92206,0.14136,-0.16236,-0.82255,-0.15026,-0.74145,0.38921,-0.66795,-0.41558,-0.91812,-1.2801,0.2096,-0.10883,-1.3741,-1.296,-1.4156,-0.74489,-1.0267,-1.0167,-0.9661,-0.4807,-0.75997,0.93997,0.38713,-0.19997,-0.99254,-0.5083,-0.3749,-0.55293,-0.57109,0.23356,0.31888,-0.4754,-0.67765,-0.49617,0.63941,0.1735,-0.08514,0.25425,-0.3005,-1.0164,-0.54772,-1.2113,-0.76426,0.60258,-0.4698,0.5421,0.20056,-1.0012,0.44714,-1.0288,-0.38994,0.5844,-1.26,-1.3362,-0.13059,-0.06221,0.033878,-0.69249,0.092079,0.048612,-0.79228,-1.5009
-0.84863,0.14288,0.28672,0.050019,0.14815,-1.5266,0.58442,-0.7465,-0.12004,-0.79332,-1.3889,0.66397,0.43819,-0.86565,-0.95778,-0.36316,-0.72776,0.58313,-0.4499,0.033163,-0.85778,0.47759,-1.2723,0.99404,0.33161,-1.0554,0.64498,-0.5639,-0.6831,-1.0936,-0.32664,-0.38134,-1.4304,0.084715,0.12391,1.5097,2.2807,0.27635,-0.75449,-0.32349,1.1755,0.58606,1.3788,1.1201,0.45638,-0.37063,-0.44186,-0.28281,0.44358,-0.050829,0.18203,-0.4179,-0.16211,-0.035469,0.82756,-0.17055,0.76583,1.8779,0.3265,-0.10436,0.64711,-0.91172,-1.6485,-0.2651,-0.73554,0.4225,0.27356,0.24323,0.26962,0.55123,1.0003,1.8635,2.9076,1.7975,0.42284,0.59647,-0.091364,0.1418,0.51695,-0.87818,-0.56027,0.10543,0.79625,-1.3873,0.040095,1.7812,1.6322,2.1031,0.90356,-1.2338,-0.99481,-1.2264,-0.40709,0.11294,0.31463,-0.91669,-0.096262,-0.25086,-1.7404,-1.5753,-0.61046,-0.87688,-1.3266,0.37234,0.42329,-0.012507,-1.457,-2.1406,0.21472,-0.165,-0.50157,-0.044001,-0.21676,-0.4534,-1.5812,-1.8373,-1.5831,-0.66693,-1.3804,-1.307,-0.64443,-1.1317,-0.86964,-0.91626,-0.99201,-0.34592,-0.20283,-0.58772,0.41635,-1.0711,-0.38645,-1.7308,-0.16809,-1.7797,-0.45735,-0.10236,-1.4407,-1.9177,-0.58958,0.047453,-1.4974,-0.60377,-0.041296,-1.3392,-0.81174,-1.3327,-0.61797,-0.79796,-1.7679,-2.2177,-1.6193,0.22064,-1.0529,-1.6308,-0.34671,-0.41529,0.52923,-0.067764,-0.53177,-0.62774,-0.206,-1.1763,-1.355,-0.80569,-0.40918,-1.1816,0.88019,-0.97885,0.0065953,-0.713,-0.93994,-0.081011,0.33081,0.10941,-0.12942,-0.10097,0.38347,-0.030027,0.17136,-0.97701,-0.21465,-1.2159,0.8821,-0.39073,2.0052,-0.49566,0.045211,-0.38853,-0.68032,-0.37896,-0.30838,-0.52286,0.71884,-0.41004,-0.08629,-0.34873,-1.2929,0.80397,0.39965,0.18006,-0.21476,0.21269,0.030726,-0.62291,-0.56677,-0.66273,0.13057,-1.709,0.2896,-1.0104,-0.52962,0.37182,-0.062352,-0.49904,0.85074,0.69854,-0.22889,-0.39639,0.34417,-1.214,-0.32119,0.1446,-0.74262,-0.83279,-0.92424,-0.14055,-1.4018,-1.5433,-0.88533,-0.37468,-0.80533,-0.22147,1.3308,-1.7765,-0.68945,0.65919,-1.2663,-0.89118,0.14306,0.46714,-0.2394,0.88735,-0.68743,-0.43452,0.46508,-1.4339,-0.082925,-1.3983,-0.66596,0.22177,-1.3119,-1.2602,0.52135,-0.33866,-0.51241,-0.72307
0.012665,-0.074293,-0.25317,0.14728,-1.4722,-1.034,-0.98907,-1.2063,-0.12119,0.58348,-0.1764,-1.0995,0.2795,-0.023439,0.35747,-1.6094,-1.181,-0.032096,0.38591,-0.089213,-1.4464,-0.0025979,-0.12797,-0.53822,0.64436,-0.30373,0.67911,0.3256,0.20962,-0.44709,-0.30972,-1.0174,-0.45962,0.051208,-0.87228,-0.62806,1.4653,0.44827,0.76551,0.52727,0.52846,0.26454,1.0093,-0.83733,-0.11994,0.49999,-0.17841,-0.45766,-0.79617,-0.018084,-0.93316,1.4688,1.0365,1.1187,1.3622,1.1499,1.854,-0.29381,-0.54332,0.59395,-1.2358,0.27054,-0.63101,-0.09246,0.034475,0.17873,-0.94928,0.70387,0.013464,0.76803,-0.64428,0.14015,0.10605,0.72229,1.086,-0.16629,0.71898,0.097444,-0.61827,-0.78278,-0.51391,-0.37767,0.10373,-0.27353,-0.4304,0.89906,1.208,-0.22491,0.42787,-0.080591,0.55897,1.3504,-1.1157,0.97756,0.15995,-0.9078,-1.0457,0.36378,-1.4197,-1.017,0.438,-0.3009,0.94933,-1.0393,-0.50135,-1.3749,-0.94335,0.030364,-0.81933,1.1338,-0.30529,-0.99764,0.056172,0.43941,-0.1375,-1.407,-0.82152,0.19788,0.22071,1.0463,0.1552,-1.892,0.58733,0.38792,-0.19333,-0.089777,-1.0503,-0.41657,-1.5389,-0.83409,-0.10166,0.17185,-0.62864,0.13934,1.6745,-0.99233,-1.0167,-0.44777,0.86942,-0.41867,-1.6475,-1.5831,-1.1364,-0.41429,-0.50518,-1.1836,-0.1566,0.19835,-0.18135,-0.64054,0.30877,1.5129,-2.4626,-1.613,-1.0422,-1.8927,-1.682,-0.87811,-0.65858,-0.80513,-0.27558,0.23107,-0.21558,-0.46323,0.91634,0.82474,0.72545,1.6973,-0.68727,-1.2657,-2.0968,-0.71109,-1.91,0.17386,-1.2354,0.14867,-0.30634,-0.36246,-1.6483,-1.4154,-0.65702,-0.19007,-0.38609,-0.72817,-1.0415,-2.3639,-1.8009,-0.13814,-1.6859,0.23904,-0.28553,-0.55889,-0.12059,0.036274,0.17694,-0.75734,0.17953,-0.60073,0.57196,-1.1094,-0.54521,-0.95801,-2.3505,-1.8043,-0.51433,-1.4449,-1.213,-1.572,-0.37029,-0.002149,-0.93632,-1.2329,-1.266,-1.9255,-1.4542,-0.46,1.3473,-0.44363,-1.1515,-1.9852,-1.1069,-0.48943,-0.27106,0.067943,-0.78878,-0.057038,0.33894,-1.4597,-2.1363,-0.53167,-1.1492,1.4651,1.3529,-0.54567,-1.6881,-1.096,-0.34108,-0.15033,-0.85033,-0.627,-0.40576,0.32538,-1.3082,-1.6926,-0.20502,-1.2646,-0.47126,-0.9797,-1.6062,-0.42121,-0.33833,-0.57706,-0.24168,-0.20902,0.51978,-0.56331
-0.00021936,-0.69367,-1.0859,-1.35,0.04243,-0.16399,0.51904,-0.068715,0.40852,-0.4933,-0.7076,-1.0523,-0.93098,0.84851,-0.88455,0.00029674,0.072945,-0.86582,0.41582,0.41726,-0.042721,1.0709,1.3065,0.31465,0.43769,-0.62525,-1.7069,-1.249,-1.467,0.14847,0.44109,-0.60782,0.45954,0.3354,0.52301,0.74155,0.088712,1.1851,0.95169,0.65189,-0.60957,-0.55308,0.27419,-1.1813,-0.22205,0.71997,0.52673,-0.6322,0.39951,-0.037744,1.2082,-2.1407,-0.22874,-0.49623,-0.27051,0.58322,0.8315,0.01838,-0.53108,0.31775,0.44067,-0.91333,-1.6265,-0.56701,0.20327,-1.8139,0.3071,-0.42879,0.069393,-0.22629,0.24935,-0.22795,-0.65699,1.0868,-0.24277,-0.4175,-0.25734,-1.1199,-1.5226,0.46254,0.9038,0.13616,-0.58374,-0.30364,-0.99359,0.001225,-0.61806,1.5803,-0.58019,0.21366,-0.10346,-0.12616,1.4203,-0.14905,-0.81912,0.38544,0.71915,0.01419,-0.21247,0.53462,0.18323,-0.051083,-1.239,0.048615,-0.066858,-1.4295,0.64224,-0.070338,0.43584,-0.20802,0.16664,0.35162,-0.45994,0.60697,-0.92152,-0.63187,-0.34641,1.0552e-05,-1.0328,-1.2966,-1.3922,0.77045,-0.07657,0.4351,-1.4274,-0.27381,-1.104,0.057063,0.050958,1.1091,0.019201,-1.2772,-1.5075,-0.66339,-1.5612,-1.1018,-0.27864,1.6332,-0.38728,1.6259,-0.26031,0.13532,-1.1722,-0.2678,0.29345,0.19897,-0.60473,0.034813,-0.52503,-1.8809,-1.5272,-0.056693,0.13364,0.27132,0.052309,0.8088,0.77757,-0.843,0.94405,0.26075,1.0955,-0.14785,-0.69556,-1.3547,-1.8126,-1.9522,-2.9247,-1.2857,1.4911,0.40255,0.5454,0.074598,0.68898,-0.084203,-0.63788,-1.2373,-0.3074,-0.066665,-0.38962,-0.91069,-1.8897,-1.258,-1.4463,-0.56937,0.43999,0.074719,1.0229,1.336,0.22984,0.011861,0.19775,-0.28472,-0.23169,0.80461,-0.60633,-0.83761,-0.81416,-1.7047,-0.12394,1.8597,0.80421,-0.59445,-0.054398,0.040996,0.93555,0.47935,-0.38193,-0.68656,-0.26818,0.16604,-0.15476,-1.5046,-0.19862,-0.38808,0.22733,1.0617,1.4771,0.72061,-0.26621,-0.8736,-0.25744,-0.37581,-0.19388,0.56167,0.26019,-0.948,-1.0712,0.42555,0.69203,0.39258,1.3155,1.3177,1.5046,-1.2112,0.49328,-0.18018,-0.95533,0.9027,0.34787,-0.36094,0.15616,-1.6014,-1.2522,-0.86381,-1.046,0.67498,0.46533,0.021318,0.56955,0.30701,1.3313,-0.64734,-1.2613,-0.083669,-0.52547,-0.47778
-0.79752,0.039576,-1.6151,-1.7166,0.21176,-0.030498,-0.76077,-1.4643,-0.62881,0.31886,-0.98456,0.31283,-0.034345,-1.2517,-1.0043,-0.52732,-1.0275,-0.072982,0.034772,-0.94872,-0.90562,0.2208,-0.021724,0.24939,-1.6436,-0.33485,-1.657,-0.39501,-0.93872,-0.33635,-1.0549,0.23633,-0.53439,-0.2774,-0.57599,-0.1541,0.092099,-0.45701,-1.1651,0.20786,-0.25198,-0.13477,0.38258,-1.0341,-0.093328,0.51534,-0.85285,-1.0107,0.63673,0.22849,-0.85863,0.26981,-0.71121,0.7414,-1.4234,-1.48,-1.6019,-1.7011,-0.97315,-0.015584,0.66116,-1.3366,-1.6456,-0.9928,-1.0277,-0.11141,-0.59484,-0.29094,-1.1174,-0.32248,-0.33025,-0.76115,-0.74862,-0.36787,-0.92836,-1.2865,-0.052897,-1.1935,-1.4633,0.38581,-0.0049886,0.3374,-0.15753,-0.67353,-1.4143,-1.377,0.133,0.32334,-0.0030844,-0.2233,-1.0424,0.15808,0.53491,-0.28898,0.19821,0.69575,-1.5701,-0.78693,-1.3034,-0.37583,-0.27201,-0.30077,0.3331,0.53975,-0.87087,-0.020685,-0.0047998,-0.67023,-1.3612,-0.30069,-0.50582,-0.38926,0.27735,-1.4102,-0.8396,-1.1491,0.10023,-0.94261,-0.54864,-1.2974,-0.57615,-0.49442,-0.27961,-1.7814,-1.4359,-1.0769,-1.1661,0.64101,-1.1573,-0.014381,-0.099329,0.48556,0.084566,-0.99958,-0.18674,0.40153,-0.23534,-0.59445,0.15838,-0.067074,-1.7335,-0.60096,-1.7494,0.071076,-0.33077,-1.5554,-0.36584,-1.0141,-1.1194,-0.90969,-0.9524,-0.35884,0.24708,-0.46851,-0.19446,-0.20292,0.23891,0.050401,-0.89089,0.030736,-0.69168,-1.3988,-1.3134,-0.55916,-0.51477,-1.2277,-0.54374,-0.84865,-0.39984,-1.1313,-1.2435,-0.8385,-0.22808,-0.90359,-1.0296,-1.2976,0.48208,-0.70677,0.50717,-1.4676,-1.4021,-0.2053,-0.78078,0.061849,-1.444,-1.0806,-0.35649,0.38796,-0.34852,-0.69587,0.41512,-0.708,0.26107,0.52423,-0.62901,0.38099,0.25469,-0.15921,-1.422,-0.28447,-0.24676,-0.49369,-1.2426,-1.1425,0.093717,-1.3556,-0.95254,0.036828,-0.23237,-0.6954,-0.077946,-1.9386,-0.80035,-1.0747,-0.34029,-1.5549,-0.60817,0.73964,0.40978,-1.2211,-1.2151,-0.96208,-1.8038,-0.25934,-0.6168,-0.60631,-0.44522,-0.031952,0.28527,-1.4453,0.18418,0.076388,-1.1589,0.12697,-0.70751,-0.071627,-0.77228,-0.79165,-0.0083776,-1.1949,0.10184,-0.16717,0.42564,-0.83542,0.31083,0.47751,-1.2359,-0.27157,-0.67555,0.2279,-1.1206,0.03873,0.55208,-1.0647,0.060533,-0.93149
-0.69681,-0.44609,-1.2188,-0.64922,-1.2939,-0.66358,-0.73793,-0.9118,-0.26054,-0.6325,0.96274,-0.95643,-0.86479,-1.6875,0.5154,-0.033845,-0.41622,-1.7891,-0.14454,-1.0666,-1.3139,-0.2683,-0.7022,0.70562,-0.29689,-0.031369,-0.35689,-0.64538,0.52217,-1.0802,0.44733,-1.3383,-0.47591,-0.36595,-0.82462,-0.37198,-0.76645,-1.3928,0.29958,-0.68817,-0.76642,-1.7261,-0.42073,0.092082,-0.89954,0.16536,-1.2419,-0.24573,-0.18378,0.76483,0.74725,-0.46562,-0.49093,0.7256,-1.7797,0.15962,-1.5121,-0.8417,-0.6748,0.36841,0.66443,-0.51014,-1.422,0.040795,-0.58244,-0.80185,-0.036523,-1.0976,-0.051872,-0.37043,-0.52375,-0.74677,-0.66027,-0.99617,-1.1234,0.0061309,-1.0975,0.43802,-0.70092,-1.602,0.21869,-0.79181,-0.07654,-1.4123,-0.074879,0.24332,0.11813,-1.3359,-0.24859,-0.30336,0.8774,-0.35083,-0.0094589,-0.013473,-0.22684,-1.2009,0.70788,-0.86325,-1.3386,0.48919,-0.55535,-0.31571,0.051115,0.5263,0.83794,-1.0429,-1.2111,0.34673,-0.73251,-0.93576,-0.46138,-0.44912,-0.88375,0.57727,-1.4673,0.61996,-0.16352,-1.774,-0.71094,0.66945,-0.17975,-1.2644,-0.73068,-0.65553,-0.010488,-0.25673,-0.47633,-1.4123,-1.2208,-1.2339,-0.077978,0.1021,-0.96092,0.0077483,-0.95657,-0.40826,-1.3745,0.57271,-0.26143,-1.2418,-0.91182,-0.75281,-1.1806,-0.3336,0.18085,-1.2253,-1.3092,-1.0231,0.867,-0.59941,-0.10055,-1.0341,0.010308,-0.49614,-1.2394,0.25487,-0.59721,-0.2863,0.60753,-0.12168,-0.53032,-0.40341,0.64912,-1.4631,-0.060335,-1.0874,-1.6908,-0.30584,-0.40545,-0.63235,0.31966,-0.34543,-0.79105,-0.69426,-1.1474,-0.61026,-0.054424,0.075709,0.66034,-1.4115,-1.3611,-1.1197,-0.46302,-0.022583,-0.93636,-0.39242,-1.0619,-0.28775,0.3582,0.23899,-0.43461,0.21339,0.28029,0.23222,-1.7252,-0.47211,0.52863,-0.28101,0.69861,-0.54693,-0.52169,-0.81968,-0.47954,-0.71154,0.020758,0.22929,-0.88403,0.010995,-0.79772,-1.5501,-0.071069,-0.091537,-0.81748,-0.74357,0.52859,0.092643,-0.054113,-0.38786,-0.75041,-0.51929,-0.89101,-0.57363,-1.1882,-0.48271,-0.25897,-0.91806,0.58588,0.63193,-0.11933,-0.26326,-1.6957,-1.7619,-0.42342,-0.32052,-0.83597,-0.26239,-1.3201,-0.32401,0.81812,-0.11642,-1.5274,-0.48919,-0.25067,0.74417,-0.77722,-1.5901,-0.84233,0.042486,-1.0392,-0.19964,-1.2187,-0.95453,-0.45456,-0.53206,0.025298,0.31819
0.013117,-1.0145,0.13186,-0.68527,-1.2869,-0.26825,-0.10965,0.14531,-0.76167,-1.2848,-0.662,-0.38685,-1.1153,-0.28692,-0.83523,-0.60475,-1.2859,0.063188,0.43539,-0.99027,-0.66584,0.30734,-0.46634,0.49292,-0.98718,-0.76065,-1.5263,0.040522,0.60658,0.46696,-1.2433,0.65158,-0.74798,-0.92252,-1.9174,-0.64188,0.48191,-0.092546,0.031256,0.68563,-1.6382,-0.18065,-0.15453,0.53304,0.44441,-0.56233,-0.91521,-0.91548,-0.95239,0.027516,-0.5258,-0.36619,0.25353,0.056035,0.46733,0.20655,-0.67362,-0.07959,-0.57645,-0.61255,-1.0365,-1.1515,0.11386,-0.71668,0.41295,-1.1328,-0.5533,0.40374,-0.35778,-0.41097,-0.54899,-0.085234,-0.96321,-1.4583,0.23329,-0.19217,-0.44588,-0.32481,-1.1203,-1.5108,-0.9678,0.23983,0.33407,0.355,-1.0187,-0.40012,-1.5283,-1.249,-1.2338,-0.2963,-1.3088,-0.59451,0.4869,-1.4724,0.24523,-0.90451,0.15707,-0.91804,0.22962,0.047333,-0.0028426,-1.178,-0.23318,-0.96338,-1.4366,0.66293,0.22659,-0.74866,-0.67875,-1.055,-0.26931,-0.11467,-0.69396,0.41497,-0.11909,-0.92218,-0.70927,-0.19101,-0.14683,-1.1332,-1.8366,-0.32787,0.269,0.27005,-0.89549,-0.18938,-1.2548,-1.1514,-0.8887,0.3115,-0.17471,-0.7139,-0.91976,0.078854,-0.2588,-0.3664,0.21851,-1.8235,0.21215,-0.66312,-1.057,-0.42149,-0.78289,-0.031449,-1.4983,-0.9734,-0.97609,0.5244,-1.3334,-1.7008,0.37666,-0.49045,-1.7515,0.38301,-1.079,0.24074,-0.55433,0.081977,-0.67598,-0.21122,-1.476,-0.64955,-0.66909,-1.3676,0.057058,-0.23432,-1.7203,-0.50332,-0.92787,-0.49798,-0.58543,0.41732,-0.028748,-1.7149,-0.50059,-0.30497,0.1433,0.26488,-0.53856,-0.62913,-0.66005,-1.2331,0.53059,-1.8366,-0.85251,-0.44984,-1.0067,0.25756,0.021155,-1.0358,-0.8172,-1.5045,-0.81919,-0.92856,-0.17626,-0.30853,0.1216,-1.189,-0.37049,-1.2285,-0.0085934,0.40673,-0.99529,-0.52441,-1.3531,0.088492,-0.16064,0.65579,0.18596,-1.2625,-0.4791,-0.9423,-0.76948,0.16905,-0.51029,-0.24949,0.33181,-0.89599,-0.24299,-0.80937,-0.97487,-0.82395,0.37567,-0.44799,-0.53237,0.10058,-0.072291,-0.86928,-0.49339,0.2664,-0.021236,-0.85876,-0.63338,-0.77647,-0.18806,-0.52258,0.26769,-1.4685,-0.48058,-0.87372,-1.1847,-0.84329,-0.6664,-1.0108,-0.30157,-0.63489,-0.49686,-0.1958,0.053329,-0.55641,-1.4107,-0.77331,0.081968,-1.3048,0.63415,0.71454
0.14932,0.3713,0.37295,0.13888,0.37904,-1.0897,0.042302,-0.60229,0.12732,-0.71738,0.17342,-0.21083,-1.0144,-0.79093,-1.3628,-0.3609,0.26683,-1.3983,-0.6558,-1.3081,-0.76872,-1.1435,-1.2405,-0.9039,-1.0821,-1.0287,-0.57347,0.08737,0.23314,-0.3039,-1.12,0.50532,-1.6871,-0.29396,-0.93608,0.41874,-0.47817,-0.020935,-0.20672,-0.17057,-0.6427,-0.26044,-0.27212,-1.2532,-0.49096,-1.0751,-0.90302,-1.8312,-0.23931,-1.3038,-0.68792,0.21414,0.29363,-0.030395,-0.6784,-0.15112,-0.90057,-1.1517,-0.91589,-1.0641,-0.26264,-1.0254,-1.3085,-0.76823,-1.2032,-0.66463,-0.35596,-0.58024,-0.50662,-0.87463,-0.036333,-0.93396,-0.89325,-1.6514,-0.8876,0.32024,-1.4124,-0.58641,0.77304,-1.2101,-0.71903,-1.17,-0.59694,-1.2613,0.56157,-0.020527,0.24087,-0.0045308,-0.75106,0.77473,-1.867,0.56993,0.19417,-1.0518,-0.63599,-0.72016,-0.88514,-0.1428,-1.6053,-0.37364,-1.4638,-0.735,-0.94575,-1.1916,-1.0235,-1.3532,-0.82199,-0.86427,-1.2635,-1.1685,-0.96447,-0.34839,-0.32383,-0.74216,-0.9689,0.47098,-0.66768,0.50735,-0.39049,-0.648,-0.29309,-0.82499,-1.0785,-0.74253,0.18515,-1.5771,-0.093767,-0.76929,-0.0037523,0.36968,-0.3197,-0.67756,-0.097484,-0.1823,-1.4121,0.26435,-1.0412,0.10117,-0.98554,-0.72908,-0.9392,0.025004,-0.54157,-0.16449,-1.4894,-0.43302,-1.3817,0.16476,-1.6761,-0.46399,0.55988,-0.58698,-0.087703,-0.94963,-0.45427,0.23313,-0.20075,-0.74295,-0.69346,-0.27865,-0.29831,0.33508,-0.74885,0.027642,-0.2546,0.62656,-0.25572,-0.32401,0.020646,-0.25075,0.56798,-0.52205,0.45217,-1.1297,-0.46246,-0.26298,0.14587,0.035051,-1.416,-0.36742,-0.30371,-1.1518,-0.071138,-1.2836,-0.90704,0.82604,-0.18538,-0.8121,-1.1335,-1.7202,-0.71292,0.2925,0.15947,0.90618,-0.2975,-0.35067,-1.2167,0.24901,-0.78414,0.6086,-0.79782,-1.6841,-0.95757,-0.35523,-1.3309,0.082391,-1.0307,-0.7667,0.59381,-0.18959,-0.95692,0.63544,-1.5764,0.19711,-1.654,-1.5001,0.47278,-0.66672,-1.0473,-1.698,-0.58434,0.10037,-1.4553,0.5244,-1.2627,-0.9889,-0.62417,0.81298,-0.71276,-1.5268,-1.2472,-0.81399,-0.36295,-0.65412,0.32831,-0.87871,-0.32424,0.19727,-0.28021,-1.0197,-1.1443,-0.68298,-0.30184,0.68873,-0.64604,-0.050914,0.86555,-0.51066,-1.16,0.28485,0.26823,-0.008831,-0.45599,-0.28151,-0.24673,-0.92036
-1.8854,-0.33155,-1.44,-0.69678,0.47865,0.91423,-0.85192,-1.0143,-0.86965,-0.16106,-0.98897,-1.1219,-1.0426,-0.77353,0.49624,-0.50395,0.62878,-0.23299,-0.79396,0.091008,-0.55268,1.3754,-0.064503,-0.14731,0.17463,-0.49826,-0.64777,-0.17553,-1.4578,-0.24949,-1.0626,-0.8077,0.74046,-0.79842,-1.3513,-0.88382,1.0634,0.90575,0.9849,1.4285,0.074782,0.46611,-1.2123,-0.54781,0.32896,-0.1158,0.36462,-1.8245,0.57761,0.079467,-0.34593,0.32304,-0.53255,0.33792,-0.1631,0.71332,1.3668,0.94943,-0.12698,-0.048228,-0.75797,-0.33897,-1.8889,-1.6184,-0.033463,0.016048,0.039675,-0.36653,-1.2494,-0.84531,-0.31686,-1.1844,-0.47091,0.19675,-0.65829,-1.2303,1.4654,0.3789,0.35483,0.56779,-0.33741,-0.74146,0.011423,-0.60419,-2.0531,-2.029,0.038532,-0.067332,-0.92439,-0.72093,1.5596,1.5151,0.64477,0.06299,0.32925,-0.18267,-1.6371,0.051374,0.5735,-0.21397,-2.3618,-1.4291,-1.081,-1.2262,-1.1888,0.42942,0.70205,0.51719,1.0169,1.3904,-0.26175,0.3172,-1.397,-0.79359,-1.2726,-0.20707,-1.066,-0.020829,0.51388,-0.21007,-0.60477,-0.40952,-0.37746,-0.94643,0.93379,-0.1161,0.11252,-0.65756,-0.74906,-0.4298,-0.23606,-0.18601,-0.3651,-0.14212,-1.4092,-0.27427,-0.44642,0.42676,0.58184,0.13965,-0.1416,-1.976,-0.62647,-0.22204,-1.4978,-1.2088,-1.3281,-1.6893,0.23414,-0.982,-1.2211,-1.0478,0.73236,-0.25623,-0.93118,0.17372,0.26567,-1.1447,-0.78701,-1.1153,-0.12974,-0.11522,0.10255,-1.66,-0.94485,0.54752,0.166,0.64543,-0.58008,0.11792,-1.5882,-1.2933,-1.0461,-1.4646,0.11794,-1.0563,-0.14106,-0.58089,-1.2109,-0.77974,-1.5327,-0.4638,-1.021,-1.2956,-0.3921,-1.7958,-1.2616,-0.8342,-0.89472,-0.75853,-1.2591,0.42155,-0.70823,-1.5945,-0.2276,-0.46835,-1.0912,-0.066983,-0.86783,-0.035374,0.80502,0.033075,1.7759,0.45976,0.025982,-0.80143,0.40678,0.1714,-0.4419,-0.66477,0.407,-0.39452,-0.58047,-0.33152,0.075431,-0.10826,0.56848,0.54617,0.19677,1.7989,0.55706,-0.10728,-0.88866,-0.67899,-0.63813,0.57503,-1.1467,0.7681,0.88939,0.46228,1.5958,1.392,0.31772,-0.0093395,-0.75143,1.5614,-0.50429,0.28742,0.53014,-1.142,-0.060595,0.38641,-1.1254,-1.4001,-0.69761,-1.4419,-0.47007,-0.36697,-0.91617,-0.4832,0.076276,-0.88088,0.28493,0.35738,-1.4051,-1.3365
-1.0458,-1.2196,-0.37434,-1.2362,-0.52375,0.79354,0.20291,-0.88623,-1.2516,-1.0051,-0.29417,-1.6119,-0.53094,-0.33714,-0.18503,-0.065019,-0.58194,-0.20155,-1.4575,0.50669,0.78021,-1.0575,-0.38689,0.14456,-0.012439,-1.2039,-0.87082,-0.69976,-1.1295,-1.0519,-1.0633,0.13669,-0.80196,-0.51562,-0.33567,0.047807,-0.93122,-0.97094,0.069757,-0.37188,-0.49484,-0.97838,-0.69515,-0.44626,-1.4815,-0.82591,0.25904,-0.44639,0.60279,-0.7579,-0.73726,-0.62639,-0.27271,-1.0506,-0.41646,0.3172,-0.47913,-1.0865,0.9963,-0.99664,-0.75633,-0.65823,-0.018797,0.13342,-1.5875,-0.14762,0.17424,-0.23238,-0.73109,-1.5817,-0.70784,0.77713,-0.31603,0.065118,-0.067571,-1.7628,0.4628,0.47926,-0.7497,-0.15072,-1.6371,0.28445,-0.81231,-0.9739,0.66708,-0.9619,-0.3825,-1.0867,-0.60736,-0.14745,0.33975,-0.91874,0.61779,-1.5312,-0.54681,0.57926,-1.2167,-0.31579,0.079981,-0.26244,-1.0403,-0.53429,-1.2773,-0.66289,-1.0934,-0.55257,0.36371,-0.68049,-1.4533,-1.447,-0.43161,-0.11352,0.10864,-0.22141,-0.43467,0.10553,0.1258,0.36406,-0.65606,0.64864,1.5382,1.1342,1.1941,0.93806,-0.12444,1.02,-0.45003,-0.95816,-0.99019,-0.61094,-0.9856,-0.78263,0.31125,0.61009,0.94043,0.70682,-0.61759,0.88463,-1.0274,-0.47572,-0.92827,-0.33944,0.2288,-0.81714,-1.1094,-1.0793,0.044146,-1.258,0.90286,0.28117,1.3835,-0.87728,-0.10859,1.2186,-0.068224,-1.2672,-0.92807,-1.1433,0.26515,0.39538,-0.23917,0.28127,-1.3741,-0.7236,-1.0293,0.27507,-0.93429,-1.0489,-0.39543,-0.75443,-0.44189,0.32473,-0.20227,-0.85318,-1.2947,0.758,-0.75218,0.27894,-1.2102,-0.26492,0.11774,-0.23813,0.97995,-0.015789,-0.34638,-1.4984,0.25239,-0.5873,0.10945,-1.0817,0.72235,-0.63347,0.47178,0.0064016,-1.3471,-1.3727,-0.396,-0.98003,-0.79678,0.67171,-0.32261,0.56057,0.14925,-0.42158,-0.86159,-0.32848,0.05312,-0.38812,-0.25467,-0.30478,-1.3033,-1.6617,-0.73636,0.47832,-0.92977,-0.096243,-1.3193,-0.66582,-0.13102,-0.061091,-1.1937,0.38641,-1.8279,-0.87912,-0.42872,0.48084,0.043653,-1.2736,0.57936,1.4008,-1.0914,-0.41238,-1.0935,0.8974,-0.044201,-0.6598,-1.3321,-1.3232,-1.056,-0.087619,-1.2078,-0.79956,-0.033984,-0.19458,-0.77271,0.28053,-1.753,-0.88142,-0.62849,-0.54436,-0.83532,0.0091442,0.46483,-0.17643,-0.17308,-0.78331
-1.1604,-0.30001,-0.84922,-1.1209,-0.48429,-0.77546,-0.69103,-0.30411,-1.373,-0.18763,-1.0612,-1.1407,-1.442,-1.2863,0.43454,-0.84641,-0.76853,-0.42131,-0.14094,0.56482,0.19974,-1.3097,-0.64081,0.6282,-0.68485,0.62815,0.18365,-0.20227,0.32943,-0.75137,-0.51099,-1.326,-1.3906,-0.045713,-0.83275,-1.0677,-0.49722,-0.6369,-0.70982,-1.0167,-0.24658,-0.3954,-0.33522,0.090725,0.10493,-1.1981,0.27698,-0.86607,-1.022,-0.87701,-0.26306,-0.65424,-0.080767,-1.0447,-1.4547,-0.79115,-0.37598,-0.68339,-0.59987,-0.60776,-1.028,-1.4514,0.60598,-1.2154,-0.97733,-0.3127,0.10569,-0.13268,0.60605,-0.23512,0.76067,-1.2366,-0.070457,0.42615,-0.35906,-1.5206,0.0023767,-0.7838,-0.85238,-0.52164,-0.22436,-1.4933,0.34013,-0.40963,-1.6365,-0.29015,-1.4546,-1.0112,-0.83536,-0.61478,-1.6744,-0.67763,-1.8029,-0.69938,-0.40361,-1.2908,-0.47079,-0.56506,0.6224,-0.32456,0.30431,-0.040818,0.17398,-0.38636,-1.6877,0.026699,-0.3039,-0.16363,0.078218,0.69672,-0.77175,0.60374,-0.16051,-0.86057,-0.54616,-0.66501,-0.78894,0.44492,-1.1918,-1.5555,0.075346,-0.88898,0.41903,-0.63463,0.33905,-1.1812,-0.56316,-1.0504,-0.70903,-1.3473,-1.2745,-1.6605,-1.2533,-0.50859,-1.0447,-1.8261,-1.2943,-1.1205,-0.063345,-1.3311,-0.96958,-0.063102,-1.5064,-1.1419,-1.0626,-0.57042,0.051545,-1.128,-0.49993,-1.0694,-0.05435,0.44613,0.024682,-1.0279,-0.13897,-0.12002,0.020042,-0.018542,0.75096,-1.2935,-0.90211,0.12111,-0.59619,0.28783,-1.1932,-0.64641,-0.60522,-1.2699,-0.57621,-0.94201,0.051981,-0.1575,-0.6307,0.56692,-1.2412,-0.32944,0.16386,0.48992,-1.1564,-1.5436,0.30931,-1.0962,-1.0541,-0.13571,0.72175,0.37379,0.15077,-0.16325,-0.38083,-0.74101,-0.99525,-1.3705,-0.9577,-0.34977,-1.1136,-0.14417,-0.090931,-1.2174,0.052112,-0.83453,-0.32244,-0.93396,-0.67219,-0.58856,-0.31283,-0.59598,0.37666,-1.6397,-1.3354,-0.047993,-1.1087,-0.79325,-0.73095,-0.52869,-1.1269,-0.23886,-1.2619,-0.73702,-0.046908,-1.8976,-0.35932,-0.35183,-1.036,-0.61774,0.04153,-0.75366,-1.1709,0.1169,-1.2809,-0.65039,-1.6646,-0.11726,-0.14482,-0.48573,-0.05303,-0.85989,-0.65482,-0.69727,0.55009,-0.22741,0.19654,-0.97012,-1.1495,-1.1241,-0.66841,0.44724,-0.25466,0.049044,-0.21956,-1.4449,-0.11569,-0.097195,-0.56983,0.21451,-0.073907,-0.92214
-0.75329,-0.45021,-0.39018,-0.34838,-0.75755,-0.75974,-1.6322,-0.97275,-0.88798,-0.41226,-0.22237,0.18888,-1.3316,-0.88603,-1.7527,-0.51915,-0.84118,0.11698,0.60046,-1.0048,-1.5042,-0.079861,-0.86824,-0.89408,0.40964,-0.77645,-0.1343,-1.1065,-0.44121,-0.04442,-0.63035,0.080826,-1.5526,-0.17758,0.11928,-1.2716,0.60632,-0.77618,-0.78812,-0.48885,0.62004,-0.38075,0.047419,0.25682,-1.0739,-0.91057,-1.1795,-1.5119,0.22858,-0.001144,-1.0353,-0.19271,-0.83885,-0.22636,-0.94866,-0.39252,-0.71299,-0.62492,-0.67294,-0.03145,-1.4004,-0.66956,0.032073,-0.64016,-0.72227,-0.95686,-0.38335,0.22384,-1.0978,-0.69488,0.60671,0.24588,0.86548,-0.99941,-0.020816,-0.59494,-1.4405,-1.0925,-0.27117,-1.1031,-0.57775,0.15262,-0.62774,-1.0712,-1.9503,0.32793,-1.256,-1.0712,-1.4378,-0.99932,-0.96733,-1.1098,-1.4457,-0.0096063,-0.81615,-1.2231,-0.17536,-0.90573,-0.69593,-0.19906,-0.80848,-1.0699,-0.35141,-1.4152,-0.78112,-0.45301,-1.4278,-0.62148,-0.91726,0.67013,0.18998,-0.74564,0.040217,0.6343,-0.59877,-0.51853,-1.1148,-1.1492,-0.097047,-0.089131,-1.015,-1.2923,-1.0767,0.25855,-0.46523,-1.3903,-0.30076,0.19226,-1.5848,-1.1689,-0.13927,-1.7646,-1.7466,-0.42789,-0.78545,-1.381,-1.6005,-0.40576,-1.0634,-1.355,-1.2115,0.50616,-0.21466,-1.0255,0.87371,-0.84566,-1.1328,-0.58503,-1.2539,0.27571,-0.63715,-1.0017,0.26393,-0.45423,-0.38942,-0.63346,-0.95602,-0.2661,-0.84164,0.34573,-0.57928,-0.080843,-0.89812,-1.2913,-1.1455,-0.91546,0.17195,-0.62705,-1.3989,-0.012373,-0.4182,-0.0049701,-0.29199,-1.6143,-0.11455,-1.2268,-0.61886,0.16004,-0.5514,-0.85828,-0.20486,-1.076,0.32502,-1.2311,0.56879,-1.2218,0.80492,-0.19401,-0.76364,-1.2424,-0.71351,-1.4494,-1.1864,0.70987,-0.437,-1.5174,-0.80791,-1.2192,-0.55425,-0.40205,-0.19994,-0.94302,-0.59419,-1.8526,-0.62116,-1.0028,-0.067386,-0.33929,-0.064389,-0.98824,-0.72298,-0.38337,-1.0429,-1.7756,-0.62672,-1.3133,0.075926,-0.84748,-0.085164,-0.76718,-1.4552,0.62031,0.58947,-0.78681,-0.62317,-1.1919,-1.2703,0.66949,0.13469,-1.4557,-0.19108,-0.93456,-0.054128,0.67578,-1.0918,-0.63416,-0.29409,-0.3908,-1.458,-1.7113,0.33387,-1.2585,-1.0468,-1.1597,-0.66617,-0.64524,-1.4914,0.037765,-1.5859,-0.63452,0.42004,0.5617,-0.91244,-0.90739,-0.81954,-1.5424
-0.19971,-1.8608,-0.020102,-1.0825,0.31873,-0.87409,-1.0214,-0.49363,-0.86033,-0.75883,-0.94234,-1.0673,-0.99871,-0.76796,0.0093595,-0.95855,-1.2452,-0.62351,-0.4577,-0.85155,0.0057917,-0.32956,-1.4665,-0.075873,-0.73355,-0.12173,0.16471,0.11466,-0.86629,-0.26555,0.17431,-0.13634,0.38293,-1.191,-1.2449,0.32887,-0.88914,-0.21651,-0.15505,0.2879,-0.52877,-1.0382,0.06525,-0.40793,0.34948,0.70366,-0.12916,-0.4972,-0.84653,-1.31,-0.33027,0.09671,-1.0719,-1.2145,0.73269,-0.14471,0.37778,-1.2555,-1.5365,-0.14573,-0.10986,0.25627,0.18656,-0.9148,-1.2062,0.038705,0.35893,0.048032,-1.5291,-1.335,0.78806,-1.5126,-0.46569,-1.4348,0.29978,-0.18183,-1.6255,-0.68774,0.012345,-0.62619,-0.2645,0.18599,-0.36209,-0.23237,-0.94434,-0.16553,-0.38638,0.069276,0.2064,-1.3816,-0.50987,0.20604,0.11719,0.6078,-0.32326,-0.73185,-1.8014,-1.6236,-0.32094,0.49485,-1.0912,0.19954,0.70424,-1.369,-0.97369,-0.1589,-0.27667,0.13425,-0.43655,-0.93448,0.25,0.18642,-1.1292,-1.0797,-1.0889,-0.60251,-0.31301,0.054264,-0.70623,-0.49413,-0.22852,0.099239,0.04625,-0.1477,0.23166,0.30972,-0.053146,-1.1685,0.047327,-0.59052,-0.040329,-1.1931,-0.12397,0.12645,-1.5936,-1.0322,-1.7302,-0.42252,0.16106,0.1529,0.30249,-0.43687,0.18457,0.43724,-0.57222,-0.79362,0.021247,0.49534,-1.6147,-1.7641,-0.78424,0.013869,-0.14614,-0.62423,-0.56408,-0.96072,-0.6688,-1.6962,-0.14652,0.02545,-0.71534,0.03976,-1.0687,-1.235,-1.4561,-0.76222,-1.5812,0.31596,-0.32617,0.49793,-0.22434,-1.6839,0.56043,0.77027,-0.35987,-1.2011,-1.4428,-1.3872,-1.0037,0.092577,0.59005,-1.111,-0.59108,0.43582,-0.27617,0.18119,-1.6669,-0.97447,-0.43821,-0.83958,-1.5057,-1.2209,-1.4345,-0.94211,-0.051539,-1.3757,-0.20781,-1.5269,0.44421,-1.7771,-1.7466,-1.0449,-0.89103,-0.082995,-0.90782,-0.88273,-1.5612,0.10695,0.54544,-0.92901,-0.32596,-1.2735,-0.55399,0.23692,-0.90861,-1.2229,0.014017,0.17694,-1.5162,-1.3985,-1.5003,-0.12461,-1.3892,0.019952,-0.82709,-1.7174,-1.0911,-0.47628,0.51718,-0.071096,-1.3947,-0.38603,0.32011,0.54667,-0.11355,-0.51357,-1.7198,-0.078478,-1.5062,-1.404,-0.91012,0.42441,-0.64968,-1.2797,-0.86929,-1.6626,-0.69451,-0.95331,-0.71516,-0.53559,-1.2235,-0.86158,0.12297,-0.93036,-1.2935,-0.37004
-0.57584,-0.21485,-6.5586,-2.9087,10.41,-0.76828,-0.92507,-5.3499,-1.6407,-4.9458,-1.6671,-5.5157,4.281,-0.42951,-4.2233,-8.8694,6.0744,-0.25012,-1.5408,0.37514,-1.021,-5.6686,-1.9965,-1.0023,-0.55138,-0.056202
-1.1926,-1.7862,8.4421,3.1254,-3.2045,-0.70074,-1.5342,-2.2996,0.13359,2.1396,-0.20343,-13.93,-2.1514,-2.4746,10.393,8.46,-3.283,-1.3298,-0.66894,-1.8211,-2.5808,2.7723,-2.627,-0.83551,-1.7863,-1.7609
-0.88595,-0.67368,-4.9499,-2.611,-2.5311,-0.64913,-0.40443,-6.2636,-0.74444,-4.1821,-0.40044,-4.6366,-2.6049,0.21312,12.693,-12.327,-3.1064,-0.091071,-1.385,-0.93706,-0.54345,-0.23619,8.9794,-1.3889,-0.9022,-1.3595
-0.02102,-0.4233,0.69887,-0.89043,-3.3647,0.26721,0.091392,-0.92967,-1.2869,-0.35753,-0.81519,-6.9742,-12.042,-1.225,-9.6664,-9.98,11.202,-0.17894,0.55614,0.022851,0.6045,1.5878,-0.48717,0.031253,-0.51639,-1.5747
-0.51521,0.43801,0.63587,3.814,-0.3865,-1.6397,-1.0942,11.641,-0.75152,0.56666,-1.5011,-6.0782,-2.1931,0.63653,-3.3999,-3.566,-8.2621,-0.37137,-1.0124,-1.371,-0.88359,-3.0961,0.57097,-1.7301,0.8341,0.47235
0.61289,0.11001,-4.3874,0.67242,1.6406,0.27815,0.63418,-5.7557,0.54956,8.4714,-0.33465,-5.9932,-2.0625,0.44781,-3.3215,-0.19387,-10.577,0.59087,1.0028,0.75049,0.014713,12.205,0.99669,0.52469,0.64927,-0.44187
-1.4562,-0.091787,-1.4876,-2.5423,1.6748,-1.1951,0.13637,-2.0077,0.19119,-1.7821,-0.51234,-5.4818,-2.1294,-1.4309,-9.4553,10.312,-6.9242,-1.105,0.41549,-0.1126,-0.21964,-6.7962,-0.58922,-0.48646,-1.1786,0.075923
0.079086,-0.88714,1.9293,-0.68754,-0.65136,-0.25238,-0.97382,-0.60849,-0.78415,0.10105,-1.0554,-7.0686,14.77,-2.0072,-0.10179,-2.3854,-4.8423,-0.30169,-0.22615,-0.60551,-1.2428,0.73237,-0.40685,-1.0289,-0.94603,-0.78642
-1.2581,-0.68256,-9.0064,-3.1614,-7.9739,0.62628,-0.5736,-8.0173,-1.0123,-2.3824,-0.43243,4.704,-4.4023,-1.1036,-6.813,-8.8247,-11.565,-1.211,-0.42286,-0.30098,-0.28547,-7.1953,-6.415,-0.66512,0.75364,-0.40163
-1.0067,0.53138,10.669,-1.7749,-2.7276,0.13473,-0.69003,-10.146,-0.085725,0.43341,-0.65269,-5.3556,-3.4454,-1.3245,-3.1853,-2.3283,-7.2805,0.095334,0.13749,-0.25013,0.56941,-3.7702,-2.8053,-0.30422,-0.75634,-1.3056
